<?xml version="1.0"?>
<opencv_storage>
<stage13>
  <maxWeakCount>92</maxWeakCount>
  <stageThreshold>-7.8033477067947388e-01</stageThreshold>
  <weakClassifiers>
    <_>
      <internalNodes>
        0 -1 162681 3.7971092388033867e-03</internalNodes>
      <leafValues>
        2.1681416034698486e-01 -4.4943820685148239e-02</leafValues></_>
    <_>
      <internalNodes>
        0 -1 96086 -1.4256981015205383e-01</internalNodes>
      <leafValues>
        -3.4004652500152588e-01 5.1701340824365616e-02</leafValues></_>
    <_>
      <internalNodes>
        0 -1 221795 -5.4854400455951691e-02</internalNodes>
      <leafValues>
        1.9997911155223846e-01 -6.5906785428524017e-02</leafValues></_>
    <_>
      <internalNodes>
        0 -1 112760 -9.3344569206237793e-02</internalNodes>
      <leafValues>
        2.0161190629005432e-01 -7.4296273291110992e-02</leafValues></_>
    <_>
      <internalNodes>
        0 -1 19591 -1.6570914536714554e-02</internalNodes>
      <leafValues>
        -5.2389483898878098e-02 2.6835969090461731e-01</leafValues></_>
    <_>
      <internalNodes>
        0 -1 163085 -9.0111140161752701e-03</internalNodes>
      <leafValues>
        2.2543551400303841e-02 -3.5392770171165466e-01</leafValues></_>
    <_>
      <internalNodes>
        0 -1 20194 5.0089895725250244e-02</internalNodes>
      <leafValues>
        8.5452646017074585e-02 -2.4103100597858429e-01</leafValues></_>
    <_>
      <internalNodes>
        0 -1 307693 1.0420349426567554e-03</internalNodes>
      <leafValues>
        5.2299503237009048e-02 -3.0274590849876404e-01</leafValues></_>
    <_>
      <internalNodes>
        0 -1 4352 -1.0344934416934848e-03</internalNodes>
      <leafValues>
        -3.8400897383689880e-01 4.2001605033874512e-02</leafValues></_>
    <_>
      <internalNodes>
        0 -1 238494 -2.5462331250309944e-03</internalNodes>
      <leafValues>
        1.5905605256557465e-01 -7.6763525605201721e-02</leafValues></_>
    <_>
      <internalNodes>
        0 -1 263863 4.9679102376103401e-03</internalNodes>
      <leafValues>
        -8.5307762026786804e-02 2.0539808273315430e-01</leafValues></_>
    <_>
      <internalNodes>
        0 -1 273053 -2.8321524150669575e-03</internalNodes>
      <leafValues>
        1.8798519670963287e-01 -8.9264102280139923e-02</leafValues></_>
    <_>
      <internalNodes>
        0 -1 242 3.4476639702916145e-03</internalNodes>
      <leafValues>
        6.0158021748065948e-02 -2.4510613083839417e-01</leafValues></_>
    <_>
      <internalNodes>
        0 -1 306440 2.0973328500986099e-02</internalNodes>
      <leafValues>
        1.4236154034733772e-02 -5.2640390396118164e-01</leafValues></_>
    <_>
      <internalNodes>
        0 -1 168788 1.3481869827955961e-03</internalNodes>
      <leafValues>
        -7.2025932371616364e-02 1.7850422859191895e-01</leafValues></_>
    <_>
      <internalNodes>
        0 -1 151757 1.6988083720207214e-02</internalNodes>
      <leafValues>
        2.4717010557651520e-02 -4.5920997858047485e-01</leafValues></_>
    <_>
      <internalNodes>
        0 -1 302355 7.0177033194340765e-05</internalNodes>
      <leafValues>
        9.2168264091014862e-02 -1.3317656517028809e-01</leafValues></_>
    <_>
      <internalNodes>
        0 -1 305596 -2.1990218665450811e-03</internalNodes>
      <leafValues>
        -4.4275689125061035e-01 3.6484804004430771e-02</leafValues></_>
    <_>
      <internalNodes>
        0 -1 295447 -5.9398547746241093e-03</internalNodes>
      <leafValues>
        2.7111813426017761e-01 -4.9230225384235382e-02</leafValues></_>
    <_>
      <internalNodes>
        0 -1 213143 -2.3194327950477600e-03</internalNodes>
      <leafValues>
        1.5624746680259705e-01 -8.6440168321132660e-02</leafValues></_>
    <_>
      <internalNodes>
        0 -1 153144 2.7791230008006096e-02</internalNodes>
      <leafValues>
        2.8441786766052246e-02 -3.4799227118492126e-01</leafValues></_>
    <_>
      <internalNodes>
        0 -1 243734 2.8926797211170197e-02</internalNodes>
      <leafValues>
        2.3447087034583092e-02 -5.5787020921707153e-01</leafValues></_>
    <_>
      <internalNodes>
        0 -1 289655 -1.0636653751134872e-03</internalNodes>
      <leafValues>
        1.6344319283962250e-01 -8.5673607885837555e-02</leafValues></_>
    <_>
      <internalNodes>
        0 -1 159361 -9.9985916167497635e-03</internalNodes>
      <leafValues>
        1.3775099813938141e-01 -9.7665429115295410e-02</leafValues></_>
    <_>
      <internalNodes>
        0 -1 124152 4.2117740958929062e-02</internalNodes>
      <leafValues>
        2.5665439665317535e-02 -5.8145707845687866e-01</leafValues></_>
    <_>
      <internalNodes>
        0 -1 307693 -3.9222091436386108e-04</internalNodes>
      <leafValues>
        -1.9218260049819946e-01 7.3118455708026886e-02</leafValues></_>
    <_>
      <internalNodes>
        0 -1 38404 4.1942636016756296e-04</internalNodes>
      <leafValues>
        -1.0993666201829910e-01 1.0914824903011322e-01</leafValues></_>
    <_>
      <internalNodes>
        0 -1 145619 1.4337460743263364e-03</internalNodes>
      <leafValues>
        3.2721888273954391e-02 -3.2123208045959473e-01</leafValues></_>
    <_>
      <internalNodes>
        0 -1 9098 1.9593623280525208e-01</internalNodes>
      <leafValues>
        2.0703947171568871e-02 -6.8808829784393311e-01</leafValues></_>
    <_>
      <internalNodes>
        0 -1 56571 3.2970167696475983e-02</internalNodes>
      <leafValues>
        -1.8639145419001579e-02 7.2557055950164795e-01</leafValues></_>
    <_>
      <internalNodes>
        0 -1 205553 3.1465876381844282e-03</internalNodes>
      <leafValues>
        -5.6162532418966293e-02 2.1288071572780609e-01</leafValues></_>
    <_>
      <internalNodes>
        0 -1 177807 -1.6604868695139885e-02</internalNodes>
      <leafValues>
        -3.7714239954948425e-01 3.6049276590347290e-02</leafValues></_>
    <_>
      <internalNodes>
        0 -1 291642 -1.3968376442790031e-03</internalNodes>
      <leafValues>
        1.4044775068759918e-01 -9.1445513069629669e-02</leafValues></_>
    <_>
      <internalNodes>
        0 -1 256866 1.3672126457095146e-02</internalNodes>
      <leafValues>
        2.2643812000751495e-02 -5.4282796382904053e-01</leafValues></_>
    <_>
      <internalNodes>
        0 -1 206435 1.0255919769406319e-03</internalNodes>
      <leafValues>
        -6.4129151403903961e-02 2.0334488153457642e-01</leafValues></_>
    <_>
      <internalNodes>
        0 -1 283752 -2.4807034060359001e-03</internalNodes>
      <leafValues>
        -7.0164859294891357e-01 1.5752242878079414e-02</leafValues></_>
    <_>
      <internalNodes>
        0 -1 14984 -3.1086551025509834e-03</internalNodes>
      <leafValues>
        -2.9728993773460388e-01 4.0335156023502350e-02</leafValues></_>
    <_>
      <internalNodes>
        0 -1 160792 5.6173400953412056e-03</internalNodes>
      <leafValues>
        -4.2920697480440140e-02 2.6576778292655945e-01</leafValues></_>
    <_>
      <internalNodes>
        0 -1 161447 -1.9698599353432655e-03</internalNodes>
      <leafValues>
        -2.7451410889625549e-01 4.8500955104827881e-02</leafValues></_>
    <_>
      <internalNodes>
        0 -1 111248 1.3080786913633347e-02</internalNodes>
      <leafValues>
        -6.5221406519412994e-02 1.9289237260818481e-01</leafValues></_>
    <_>
      <internalNodes>
        0 -1 173807 -6.0011353343725204e-04</internalNodes>
      <leafValues>
        2.0799158513545990e-01 -6.0174580663442612e-02</leafValues></_>
    <_>
      <internalNodes>
        0 -1 305764 9.9970865994691849e-04</internalNodes>
      <leafValues>
        3.9028782397508621e-02 -3.6748000979423523e-01</leafValues></_>
    <_>
      <internalNodes>
        0 -1 173807 4.1246018372476101e-04</internalNodes>
      <leafValues>
        -7.8307896852493286e-02 1.7545601725578308e-01</leafValues></_>
    <_>
      <internalNodes>
        0 -1 302649 1.4030350372195244e-02</internalNodes>
      <leafValues>
        -3.1221516430377960e-02 3.9531588554382324e-01</leafValues></_>
    <_>
      <internalNodes>
        0 -1 19462 -7.8042615205049515e-03</internalNodes>
      <leafValues>
        -3.5949975252151489e-01 3.7860497832298279e-02</leafValues></_>
    <_>
      <internalNodes>
        0 -1 283950 7.9002529382705688e-03</internalNodes>
      <leafValues>
        -3.9403714239597321e-02 3.2935246825218201e-01</leafValues></_>
    <_>
      <internalNodes>
        0 -1 23808 -6.9914082996547222e-04</internalNodes>
      <leafValues>
        -1.2569983303546906e-01 9.8033666610717773e-02</leafValues></_>
    <_>
      <internalNodes>
        0 -1 276548 7.2183705924544483e-05</internalNodes>
      <leafValues>
        8.6599513888359070e-02 -1.4083184301853180e-01</leafValues></_>
    <_>
      <internalNodes>
        0 -1 148457 2.1290157455950975e-03</internalNodes>
      <leafValues>
        -4.7705676406621933e-02 2.5039261579513550e-01</leafValues></_>
    <_>
      <internalNodes>
        0 -1 110854 -2.7037316467612982e-03</internalNodes>
      <leafValues>
        -2.6834547519683838e-01 4.5737866312265396e-02</leafValues></_>
    <_>
      <internalNodes>
        0 -1 252632 -4.0547400712966919e-03</internalNodes>
      <leafValues>
        3.5895368456840515e-01 -3.5504385828971863e-02</leafValues></_>
    <_>
      <internalNodes>
        0 -1 45934 1.4926925301551819e-01</internalNodes>
      <leafValues>
        1.7368623986840248e-02 -7.8737878799438477e-01</leafValues></_>
    <_>
      <internalNodes>
        0 -1 296472 -1.7741996562108397e-03</internalNodes>
      <leafValues>
        1.2269452214241028e-01 -9.7789973020553589e-02</leafValues></_>
    <_>
      <internalNodes>
        0 -1 296225 -7.4518183246254921e-03</internalNodes>
      <leafValues>
        2.1092648804187775e-01 -5.9080928564071655e-02</leafValues></_>
    <_>
      <internalNodes>
        0 -1 299752 5.5395144969224930e-02</internalNodes>
      <leafValues>
        -1.7543816938996315e-02 6.6848224401473999e-01</leafValues></_>
    <_>
      <internalNodes>
        0 -1 126465 1.0469515621662140e-01</internalNodes>
      <leafValues>
        2.5106979534029961e-02 -5.0217688083648682e-01</leafValues></_>
    <_>
      <internalNodes>
        0 -1 118953 -5.4045300930738449e-03</internalNodes>
      <leafValues>
        1.9353480637073517e-01 -5.9217091649770737e-02</leafValues></_>
    <_>
      <internalNodes>
        0 -1 301698 2.1596053557004780e-04</internalNodes>
      <leafValues>
        9.9305532872676849e-02 -1.1859899014234543e-01</leafValues></_>
    <_>
      <internalNodes>
        0 -1 19208 -1.0386546819063369e-05</internalNodes>
      <leafValues>
        1.1344330757856369e-01 -1.1061257869005203e-01</leafValues></_>
    <_>
      <internalNodes>
        0 -1 118206 9.1847568750381470e-02</internalNodes>
      <leafValues>
        1.3632527552545071e-02 -7.7476483583450317e-01</leafValues></_>
    <_>
      <internalNodes>
        0 -1 104085 4.1277521848678589e-01</internalNodes>
      <leafValues>
        -1.7473138868808746e-02 8.5854566097259521e-01</leafValues></_>
    <_>
      <internalNodes>
        0 -1 305715 5.5769965983927250e-03</internalNodes>
      <leafValues>
        3.7590146064758301e-02 -3.2947602868080139e-01</leafValues></_>
    <_>
      <internalNodes>
        0 -1 297508 -3.0838663224130869e-04</internalNodes>
      <leafValues>
        1.1823700368404388e-01 -1.0609864443540573e-01</leafValues></_>
    <_>
      <internalNodes>
        0 -1 147227 -1.1392755433917046e-02</internalNodes>
      <leafValues>
        -4.3205801397562027e-02 2.8029707074165344e-01</leafValues></_>
    <_>
      <internalNodes>
        0 -1 39853 -1.1484825611114502e-01</internalNodes>
      <leafValues>
        2.0237544178962708e-01 -6.6744461655616760e-02</leafValues></_>
    <_>
      <internalNodes>
        0 -1 47735 -9.3981977552175522e-03</internalNodes>
      <leafValues>
        1.8030309677124023e-01 -7.0092342793941498e-02</leafValues></_>
    <_>
      <internalNodes>
        0 -1 4469 -8.2725327229127288e-04</internalNodes>
      <leafValues>
        1.5255042351782322e-02 -7.4350738525390625e-01</leafValues></_>
    <_>
      <internalNodes>
        0 -1 172364 1.8446531612426043e-04</internalNodes>
      <leafValues>
        -9.1189645230770111e-02 1.4391712844371796e-01</leafValues></_>
    <_>
      <internalNodes>
        0 -1 132532 -1.4323475770652294e-03</internalNodes>
      <leafValues>
        3.7467738986015320e-01 -2.8018191456794739e-02</leafValues></_>
    <_>
      <internalNodes>
        0 -1 111950 3.9670333266258240e-02</internalNodes>
      <leafValues>
        3.7433773279190063e-02 -3.2090485095977783e-01</leafValues></_>
    <_>
      <internalNodes>
        0 -1 82201 -2.7630321681499481e-02</internalNodes>
      <leafValues>
        3.9801543951034546e-01 -2.7985813096165657e-02</leafValues></_>
    <_>
      <internalNodes>
        0 -1 87498 -1.3122713193297386e-02</internalNodes>
      <leafValues>
        -4.7077983617782593e-01 2.4539725854992867e-02</leafValues></_>
    <_>
      <internalNodes>
        0 -1 200811 7.4311485514044762e-03</internalNodes>
      <leafValues>
        -5.0866216421127319e-02 2.3192697763442993e-01</leafValues></_>
    <_>
      <internalNodes>
        0 -1 201533 4.1423476068302989e-04</internalNodes>
      <leafValues>
        -7.1471631526947021e-02 1.6721214354038239e-01</leafValues></_>
    <_>
      <internalNodes>
        0 -1 240562 -3.4952014684677124e-02</internalNodes>
      <leafValues>
        -7.9489946365356445e-01 1.7484935000538826e-02</leafValues></_>
    <_>
      <internalNodes>
        0 -1 198761 -1.1671709828078747e-02</internalNodes>
      <leafValues>
        2.7282518148422241e-01 -4.7178596258163452e-02</leafValues></_>
    <_>
      <internalNodes>
        0 -1 135429 -5.4802753031253815e-02</internalNodes>
      <leafValues>
        -3.2024237513542175e-01 4.0637195110321045e-02</leafValues></_>
    <_>
      <internalNodes>
        0 -1 308036 2.5891086552292109e-03</internalNodes>
      <leafValues>
        2.7103127911686897e-02 -4.7348687052726746e-01</leafValues></_>
    <_>
      <internalNodes>
        0 -1 185907 -7.5253918766975403e-03</internalNodes>
      <leafValues>
        2.0189037919044495e-01 -6.4589634537696838e-02</leafValues></_>
    <_>
      <internalNodes>
        0 -1 101221 2.0123586058616638e-01</internalNodes>
      <leafValues>
        2.2855427116155624e-02 -5.8663541078567505e-01</leafValues></_>
    <_>
      <internalNodes>
        0 -1 228100 -3.3113658428192139e-02</internalNodes>
      <leafValues>
        -2.6334592700004578e-01 4.8217702656984329e-02</leafValues></_>
    <_>
      <internalNodes>
        0 -1 212200 -1.2124271597713232e-03</internalNodes>
      <leafValues>
        -2.1206039190292358e-01 6.0843657702207565e-02</leafValues></_>
    <_>
      <internalNodes>
        0 -1 207822 2.3841124027967453e-02</internalNodes>
      <leafValues>
        -5.6324128061532974e-02 2.3429335653781891e-01</leafValues></_>
    <_>
      <internalNodes>
        0 -1 199426 -6.2926542013883591e-03</internalNodes>
      <leafValues>
        -3.6810684949159622e-02 3.3574423193931580e-01</leafValues></_>
    <_>
      <internalNodes>
        0 -1 270236 -7.3321763193234801e-04</internalNodes>
      <leafValues>
        2.4227630347013474e-02 -6.1538779735565186e-01</leafValues></_>
    <_>
      <internalNodes>
        0 -1 205261 6.1476542614400387e-03</internalNodes>
      <leafValues>
        -5.4816823452711105e-02 2.4316941201686859e-01</leafValues></_>
    <_>
      <internalNodes>
        0 -1 5694 -4.2325795220676810e-05</internalNodes>
      <leafValues>
        -1.3396899402141571e-01 9.7014486789703369e-02</leafValues></_>
    <_>
      <internalNodes>
        0 -1 294773 1.6281420830637217e-03</internalNodes>
      <leafValues>
        -8.5106827318668365e-02 1.3869161903858185e-01</leafValues></_>
    <_>
      <internalNodes>
        0 -1 92367 2.8119038324803114e-03</internalNodes>
      <leafValues>
        1.8713744357228279e-02 -7.4792641401290894e-01</leafValues></_>
    <_>
      <internalNodes>
        0 -1 279937 -6.5133357420563698e-03</internalNodes>
      <leafValues>
        1.9146922230720520e-01 -6.4635597169399261e-02</leafValues></_>
    <_>
      <internalNodes>
        0 -1 227745 -9.4575630500912666e-03</internalNodes>
      <leafValues>
        -2.6841858029365540e-01 4.8190928995609283e-02</leafValues></_>
    <_>
      <internalNodes>
        0 -1 179695 3.2272040843963623e-02</internalNodes>
      <leafValues>
        7.2869002819061279e-02 -1.5759064257144928e-01</leafValues></_></weakClassifiers></stage13>
</opencv_storage>
